<?xml version="1.0"?>
<opencv_storage>
<cascade>
  <stageType>BOOST</stageType>
  <featureType>HAAR</featureType>
  <height>24</height>
  <width>24</width>
  <stageParams>
    <boostType>GAB</boostType>
    <minHitRate>9.9500000476837158e-01</minHitRate>
    <maxFalseAlarm>5.0000000000000000e-01</maxFalseAlarm>
    <weightTrimRate>9.4999999999999996e-01</weightTrimRate>
    <maxDepth>1</maxDepth>
    <maxWeakCount>100</maxWeakCount></stageParams>
  <featureParams>
    <maxCatCount>0</maxCatCount>
    <featSize>1</featSize>
    <mode>BASIC</mode></featureParams>
  <stageNum>6</stageNum>
  <stages>
    <!-- stage 0 -->
    <_>
      <maxWeakCount>2</maxWeakCount>
      <stageThreshold>-2.3482716083526611e-01</stageThreshold>
      <weakClassifiers>
        <_>
          <internalNodes>
            0 -1 13 6.2149800360202789e-02</internalNodes>
          <leafValues>
            -9.3138498067855835e-01 7.4440896511077881e-01</leafValues></_>
        <_>
          <internalNodes>
            0 -1 11 -5.2451785653829575e-02</internalNodes>
          <leafValues>
            6.9655781984329224e-01 -9.4370049238204956e-01</leafValues></_></weakClassifiers></_>
    <!-- stage 1 -->
    <_>
      <maxWeakCount>4</maxWeakCount>
      <stageThreshold>-1.6983546018600464e+00</stageThreshold>
      <weakClassifiers>
        <_>
          <internalNodes>
            0 -1 4 -7.6188459992408752e-02</internalNodes>
          <leafValues>
            -8.9749997854232788e-01 7.2666668891906738e-01</leafValues></_>
        <_>
          <internalNodes>
            0 -1 17 -6.3513994216918945e-02</internalNodes>
          <leafValues>
            7.2156417369842529e-01 -8.1945192813873291e-01</leafValues></_>
        <_>
          <internalNodes>
            0 -1 0 6.2606677412986755e-02</internalNodes>
          <leafValues>
            -6.4133024215698242e-01 8.2187050580978394e-01</leafValues></_>
        <_>
          <internalNodes>
            0 -1 7 -2.7224972844123840e-01</internalNodes>
          <leafValues>
            6.5992754697799683e-01 -8.3593016862869263e-01</leafValues></_></weakClassifiers></_>
    <!-- stage 2 -->
    <_>
      <maxWeakCount>3</maxWeakCount>
      <stageThreshold>-1.0605719089508057e+00</stageThreshold>
      <weakClassifiers>
        <_>
          <internalNodes>
            0 -1 6 2.4704748764634132e-02</internalNodes>
          <leafValues>
            -9.0594059228897095e-01 7.9452055692672729e-01</leafValues></_>
        <_>
          <internalNodes>
            0 -1 20 -6.5488874912261963e-02</internalNodes>
          <leafValues>
            7.6968705654144287e-01 -7.3046594858169556e-01</leafValues></_>
        <_>
          <internalNodes>
            0 -1 10 -6.9510310888290405e-02</internalNodes>
          <leafValues>
            -8.9842373132705688e-01 5.7583469152450562e-01</leafValues></_></weakClassifiers></_>
    <!-- stage 3 -->
    <_>
      <maxWeakCount>5</maxWeakCount>
      <stageThreshold>-1.5249401330947876e+00</stageThreshold>
      <weakClassifiers>
        <_>
          <internalNodes>
            0 -1 1 6.1517048627138138e-02</internalNodes>
          <leafValues>
            -8.3629894256591797e-01 7.9766535758972168e-01</leafValues></_>
        <_>
          <internalNodes>
            0 -1 18 -3.6902332212775946e-03</internalNodes>
          <leafValues>
            4.5000597834587097e-01 -8.4379631280899048e-01</leafValues></_>
        <_>
          <internalNodes>
            0 -1 5 -1.3736514374613762e-02</internalNodes>
          <leafValues>
            6.1403894424438477e-01 -6.3926643133163452e-01</leafValues></_>
        <_>
          <internalNodes>
            0 -1 19 -6.8653365597128868e-03</internalNodes>
          <leafValues>
            4.2289844155311584e-01 -8.5519385337829590e-01</leafValues></_>
        <_>
          <internalNodes>
            0 -1 2 -6.5193260088562965e-03</internalNodes>
          <leafValues>
            -8.4875863790512085e-01 3.7152314186096191e-01</leafValues></_></weakClassifiers></_>
    <!-- stage 4 -->
    <_>
      <maxWeakCount>3</maxWeakCount>
      <stageThreshold>-1.0752065181732178e+00</stageThreshold>
      <weakClassifiers>
        <_>
          <internalNodes>
            0 -1 22 -3.9026692509651184e-02</internalNodes>
          <leafValues>
            6.1240309476852417e-01 -7.8147268295288086e-01</leafValues></_>
        <_>
          <internalNodes>
            0 -1 9 2.3268617689609528e-02</internalNodes>
          <leafValues>
            -7.3447149991989136e-01 5.3140693902969360e-01</leafValues></_>
        <_>
          <internalNodes>
            0 -1 8 -1.2684616446495056e-01</internalNodes>
          <leafValues>
            4.4073763489723206e-01 -8.0402284860610962e-01</leafValues></_></weakClassifiers></_>
    <!-- stage 5 -->
    <_>
      <maxWeakCount>6</maxWeakCount>
      <stageThreshold>-1.0990350246429443e+00</stageThreshold>
      <weakClassifiers>
        <_>
          <internalNodes>
            0 -1 12 1.5776012092828751e-02</internalNodes>
          <leafValues>
            -8.4070795774459839e-01 5.3398060798645020e-01</leafValues></_>
        <_>
          <internalNodes>
            0 -1 21 -1.1168168857693672e-02</internalNodes>
          <leafValues>
            6.3440346717834473e-01 -7.0379537343978882e-01</leafValues></_>
        <_>
          <internalNodes>
            0 -1 15 -1.3852623105049133e-01</internalNodes>
          <leafValues>
            3.3602663874626160e-01 -8.4462362527847290e-01</leafValues></_>
        <_>
          <internalNodes>
            0 -1 16 1.5699580311775208e-02</internalNodes>
          <leafValues>
            -8.1723606586456299e-01 4.2809388041496277e-01</leafValues></_>
        <_>
          <internalNodes>
            0 -1 3 -6.1707142740488052e-03</internalNodes>
          <leafValues>
            -8.8541609048843384e-01 4.0294960141181946e-01</leafValues></_>
        <_>
          <internalNodes>
            0 -1 14 -3.6841905675828457e-03</internalNodes>
          <leafValues>
            5.2372807264328003e-01 -6.7601364850997925e-01</leafValues></_></weakClassifiers></_></stages>
  <features>
    <_>
      <rects>
        <_>
          0 4 6 14 -1.</_>
        <_>
          3 4 3 14 2.</_></rects>
      <tilted>0</tilted></_>
    <_>
      <rects>
        <_>
          0 5 6 11 -1.</_>
        <_>
          3 5 3 11 2.</_></rects>
      <tilted>0</tilted></_>
    <_>
      <rects>
        <_>
          0 12 1 3 -1.</_>
        <_>
          0 13 1 1 2.</_></rects>
      <tilted>0</tilted></_>
    <_>
      <rects>
        <_>
          0 13 1 3 -1.</_>
        <_>
          0 14 1 1 2.</_></rects>
      <tilted>0</tilted></_>
    <_>
      <rects>
        <_>
          0 19 24 3 -1.</_>
        <_>
          8 19 8 3 2.</_></rects>
      <tilted>0</tilted></_>
    <_>
      <rects>
        <_>
          0 20 12 4 -1.</_>
        <_>
          0 20 6 2 2.</_>
        <_>
          6 22 6 2 2.</_></rects>
      <tilted>0</tilted></_>
    <_>
      <rects>
        <_>
          2 3 8 4 -1.</_>
        <_>
          6 3 4 4 2.</_></rects>
      <tilted>0</tilted></_>
    <_>
      <rects>
        <_>
          2 10 21 14 -1.</_>
        <_>
          2 17 21 7 2.</_></rects>
      <tilted>0</tilted></_>
    <_>
      <rects>
        <_>
          2 16 20 8 -1.</_>
        <_>
          2 20 20 4 2.</_></rects>
      <tilted>0</tilted></_>
    <_>
      <rects>
        <_>
          3 0 3 14 -1.</_>
        <_>
          3 7 3 7 2.</_></rects>
      <tilted>0</tilted></_>
    <_>
      <rects>
        <_>
          3 21 18 3 -1.</_>
        <_>
          9 21 6 3 2.</_></rects>
      <tilted>0</tilted></_>
    <_>
      <rects>
        <_>
          4 18 15 6 -1.</_>
        <_>
          4 21 15 3 2.</_></rects>
      <tilted>0</tilted></_>
    <_>
      <rects>
        <_>
          5 0 2 8 -1.</_>
        <_>
          5 4 2 4 2.</_></rects>
      <tilted>0</tilted></_>
    <_>
      <rects>
        <_>
          5 0 15 6 -1.</_>
        <_>
          5 3 15 3 2.</_></rects>
      <tilted>0</tilted></_>
    <_>
      <rects>
        <_>
          9 8 3 8 -1.</_>
        <_>
          9 12 3 4 2.</_></rects>
      <tilted>0</tilted></_>
    <_>
      <rects>
        <_>
          9 10 13 14 -1.</_>
        <_>
          9 17 13 7 2.</_></rects>
      <tilted>0</tilted></_>
    <_>
      <rects>
        <_>
          14 0 6 6 -1.</_>
        <_>
          14 3 6 3 2.</_></rects>
      <tilted>0</tilted></_>
    <_>
      <rects>
        <_>
          14 3 10 7 -1.</_>
        <_>
          19 3 5 7 2.</_></rects>
      <tilted>0</tilted></_>
    <_>
      <rects>
        <_>
          15 1 4 4 -1.</_>
        <_>
          17 1 2 4 2.</_></rects>
      <tilted>0</tilted></_>
    <_>
      <rects>
        <_>
          17 10 5 8 -1.</_>
        <_>
          17 14 5 4 2.</_></rects>
      <tilted>0</tilted></_>
    <_>
      <rects>
        <_>
          18 5 6 12 -1.</_>
        <_>
          21 5 3 12 2.</_></rects>
      <tilted>0</tilted></_>
    <_>
      <rects>
        <_>
          20 1 4 10 -1.</_>
        <_>
          20 1 2 5 2.</_>
        <_>
          22 6 2 5 2.</_></rects>
      <tilted>0</tilted></_>
    <_>
      <rects>
        <_>
          20 7 4 10 -1.</_>
        <_>
          22 7 2 10 2.</_></rects>
      <tilted>0</tilted></_></features></cascade>
</opencv_storage>
