<?xml version="1.0"?>
<opencv_storage>
<stage5>
  <maxWeakCount>6</maxWeakCount>
  <stageThreshold>-1.0990350246429443e+00</stageThreshold>
  <weakClassifiers>
    <_>
      <internalNodes>
        0 -1 60532 1.5776012092828751e-02</internalNodes>
      <leafValues>
        -8.4070795774459839e-01 5.3398060798645020e-01</leafValues></_>
    <_>
      <internalNodes>
        0 -1 157870 -1.1168168857693672e-02</internalNodes>
      <leafValues>
        6.3440346717834473e-01 -7.0379537343978882e-01</leafValues></_>
    <_>
      <internalNodes>
        0 -1 104371 -1.3852623105049133e-01</internalNodes>
      <leafValues>
        3.3602663874626160e-01 -8.4462362527847290e-01</leafValues></_>
    <_>
      <internalNodes>
        0 -1 134112 1.5699580311775208e-02</internalNodes>
      <leafValues>
        -8.1723606586456299e-01 4.2809388041496277e-01</leafValues></_>
    <_>
      <internalNodes>
        0 -1 10563 -6.1707142740488052e-03</internalNodes>
      <leafValues>
        -8.8541609048843384e-01 4.0294960141181946e-01</leafValues></_>
    <_>
      <internalNodes>
        0 -1 103282 -3.6841905675828457e-03</internalNodes>
      <leafValues>
        5.2372807264328003e-01 -6.7601364850997925e-01</leafValues></_></weakClassifiers></stage5>
</opencv_storage>
